digraph Tree {
node [shape=box, style="filled", color="black"] ;
0 [label="DIFFWALK <= 1.429\ngini = 0.304\nsamples = 89762\nvalue = [16808, 72954]\nclass = good health", fillcolor="#67b4eb"] ;
1 [label="PHYSHLTH <= 82.5\ngini = 0.491\nsamples = 15246\nvalue = [8639, 6607]\nclass = poor health", fillcolor="#f9e1d0"] ;
0 -> 1 [labeldistance=2.5, labelangle=45, headlabel="True"] ;
2 [label="PHYSHLTH <= 14.5\ngini = 0.438\nsamples = 11069\nvalue = [7476, 3593]\nclass = poor health", fillcolor="#f1be98"] ;
1 -> 2 ;
3 [label="EMPLOY1 <= 7.5\ngini = 0.499\nsamples = 3999\nvalue = [1896, 2103]\nclass = good health", fillcolor="#ecf5fc"] ;
2 -> 3 ;
4 [label="PHYSHLTH <= 2.5\ngini = 0.488\nsamples = 3070\nvalue = [1301, 1769]\nclass = good health", fillcolor="#cbe5f8"] ;
3 -> 4 ;
5 [label="_MICHD <= 1.956\ngini = 0.382\nsamples = 720\nvalue = [185, 535]\nclass = good health", fillcolor="#7dbfee"] ;
4 -> 5 ;
6 [label="(...)", fillcolor="#C0C0C0"] ;
5 -> 6 ;
45 [label="(...)", fillcolor="#C0C0C0"] ;
5 -> 45 ;
216 [label="INTERNET <= 1.5\ngini = 0.499\nsamples = 2350\nvalue = [1116, 1234]\nclass = good health", fillcolor="#ecf6fd"] ;
4 -> 216 ;
217 [label="(...)", fillcolor="#C0C0C0"] ;
216 -> 217 ;
698 [label="(...)", fillcolor="#C0C0C0"] ;
216 -> 698 ;
991 [label="EDUCA <= 2.5\ngini = 0.461\nsamples = 929\nvalue = [595, 334]\nclass = poor health", fillcolor="#f4c8a8"] ;
3 -> 991 ;
992 [label="PA1MIN_ <= 12.0\ngini = 0.245\nsamples = 84\nvalue = [72, 12]\nclass = poor health", fillcolor="#e9965a"] ;
991 -> 992 ;
993 [label="(...)", fillcolor="#C0C0C0"] ;
992 -> 993 ;
996 [label="(...)", fillcolor="#C0C0C0"] ;
992 -> 996 ;
1017 [label="PAFREQ2_ <= 3072.281\ngini = 0.472\nsamples = 845\nvalue = [523, 322]\nclass = poor health", fillcolor="#f5cfb3"] ;
991 -> 1017 ;
1018 [label="(...)", fillcolor="#C0C0C0"] ;
1017 -> 1018 ;
1057 [label="(...)", fillcolor="#C0C0C0"] ;
1017 -> 1057 ;
1286 [label="EMPLOY1 <= 7.5\ngini = 0.333\nsamples = 7070\nvalue = [5580, 1490]\nclass = poor health", fillcolor="#eca36e"] ;
2 -> 1286 ;
1287 [label="_MICHD <= 1.956\ngini = 0.383\nsamples = 4248\nvalue = [3152, 1096]\nclass = poor health", fillcolor="#eead7e"] ;
1286 -> 1287 ;
1288 [label="_PA150R2 <= 1.5\ngini = 0.246\nsamples = 1179\nvalue = [1010, 169]\nclass = poor health", fillcolor="#e9965a"] ;
1287 -> 1288 ;
1289 [label="(...)", fillcolor="#C0C0C0"] ;
1288 -> 1289 ;
1378 [label="(...)", fillcolor="#C0C0C0"] ;
1288 -> 1378 ;
1557 [label="DIFFALON <= 1.975\ngini = 0.422\nsamples = 3069\nvalue = [2142, 927]\nclass = poor health", fillcolor="#f0b88f"] ;
1287 -> 1557 ;
1558 [label="(...)", fillcolor="#C0C0C0"] ;
1557 -> 1558 ;
1851 [label="(...)", fillcolor="#C0C0C0"] ;
1557 -> 1851 ;
2472 [label="CHCCOPD1 <= 1.5\ngini = 0.24\nsamples = 2822\nvalue = [2428, 394]\nclass = poor health", fillcolor="#e99559"] ;
1286 -> 2472 ;
2473 [label="SCNTLWK1 <= 6.0\ngini = 0.172\nsamples = 999\nvalue = [904, 95]\nclass = poor health", fillcolor="#e88e4e"] ;
2472 -> 2473 ;
2474 [label="(...)", fillcolor="#C0C0C0"] ;
2473 -> 2474 ;
2475 [label="(...)", fillcolor="#C0C0C0"] ;
2473 -> 2475 ;
2648 [label="POORHLTH <= 82.5\ngini = 0.274\nsamples = 1823\nvalue = [1524, 299]\nclass = poor health", fillcolor="#ea9a60"] ;
2472 -> 2648 ;
2649 [label="(...)", fillcolor="#C0C0C0"] ;
2648 -> 2649 ;
3000 [label="(...)", fillcolor="#C0C0C0"] ;
2648 -> 3000 ;
3085 [label="_EDUCAG <= 1.5\ngini = 0.402\nsamples = 4177\nvalue = [1163, 3014]\nclass = good health", fillcolor="#85c3ef"] ;
1 -> 3085 ;
3086 [label="QSTLANG <= 1.5\ngini = 0.5\nsamples = 564\nvalue = [282, 282]\nclass = poor health", fillcolor="#ffffff"] ;
3085 -> 3086 ;
3087 [label="QLACTLM2 <= 1.5\ngini = 0.493\nsamples = 450\nvalue = [198, 252]\nclass = good health", fillcolor="#d5eaf9"] ;
3086 -> 3087 ;
3088 [label="_AGE80 <= 44.0\ngini = 0.496\nsamples = 239\nvalue = [130, 109]\nclass = poor health", fillcolor="#fbebdf"] ;
3087 -> 3088 ;
3089 [label="(...)", fillcolor="#C0C0C0"] ;
3088 -> 3089 ;
3092 [label="(...)", fillcolor="#C0C0C0"] ;
3088 -> 3092 ;
3161 [label="_PAINDX1 <= 1.5\ngini = 0.437\nsamples = 211\nvalue = [68, 143]\nclass = good health", fillcolor="#97ccf1"] ;
3087 -> 3161 ;
3162 [label="(...)", fillcolor="#C0C0C0"] ;
3161 -> 3162 ;
3175 [label="(...)", fillcolor="#C0C0C0"] ;
3161 -> 3175 ;
3234 [label="HTM4 <= 158.5\ngini = 0.388\nsamples = 114\nvalue = [84, 30]\nclass = poor health", fillcolor="#eeae80"] ;
3086 -> 3234 ;
3235 [label="EMPLOY1 <= 1.5\ngini = 0.165\nsamples = 44\nvalue = [40, 4]\nclass = poor health", fillcolor="#e88e4d"] ;
3234 -> 3235 ;
3236 [label="(...)", fillcolor="#C0C0C0"] ;
3235 -> 3236 ;
3239 [label="(...)", fillcolor="#C0C0C0"] ;
3235 -> 3239 ;
3246 [label="_WT2RAKE <= 131.712\ngini = 0.467\nsamples = 70\nvalue = [44, 26]\nclass = poor health", fillcolor="#f4cbae"] ;
3234 -> 3246 ;
3247 [label="(...)", fillcolor="#C0C0C0"] ;
3246 -> 3247 ;
3256 [label="(...)", fillcolor="#C0C0C0"] ;
3246 -> 3256 ;
3271 [label="DIFFDRES <= 1.488\ngini = 0.369\nsamples = 3613\nvalue = [881, 2732]\nclass = good health", fillcolor="#79bded"] ;
3085 -> 3271 ;
3272 [label="JOINPAIN <= 7.5\ngini = 0.497\nsamples = 354\nvalue = [163, 191]\nclass = good health", fillcolor="#e2f1fb"] ;
3271 -> 3272 ;
3273 [label="WTKG3 <= 9502.5\ngini = 0.486\nsamples = 283\nvalue = [118, 165]\nclass = good health", fillcolor="#c7e3f8"] ;
3272 -> 3273 ;
3274 [label="(...)", fillcolor="#C0C0C0"] ;
3273 -> 3274 ;
3333 [label="(...)", fillcolor="#C0C0C0"] ;
3273 -> 3333 ;
3360 [label="_LLCPWT <= 110.54\ngini = 0.464\nsamples = 71\nvalue = [45, 26]\nclass = poor health", fillcolor="#f4caab"] ;
3272 -> 3360 ;
3361 [label="(...)", fillcolor="#C0C0C0"] ;
3360 -> 3361 ;
3370 [label="(...)", fillcolor="#C0C0C0"] ;
3360 -> 3370 ;
3379 [label="INTERNET <= 1.5\ngini = 0.344\nsamples = 3259\nvalue = [718, 2541]\nclass = good health", fillcolor="#71b9ec"] ;
3271 -> 3379 ;
3380 [label="_MICHD <= 1.956\ngini = 0.285\nsamples = 2026\nvalue = [349, 1677]\nclass = good health", fillcolor="#62b1ea"] ;
3379 -> 3380 ;
3381 [label="(...)", fillcolor="#C0C0C0"] ;
3380 -> 3381 ;
3464 [label="(...)", fillcolor="#C0C0C0"] ;
3380 -> 3464 ;
3859 [label="DIABETE3 <= 2.5\ngini = 0.419\nsamples = 1233\nvalue = [369, 864]\nclass = good health", fillcolor="#8ec7f0"] ;
3379 -> 3859 ;
3860 [label="(...)", fillcolor="#C0C0C0"] ;
3859 -> 3860 ;
3969 [label="(...)", fillcolor="#C0C0C0"] ;
3859 -> 3969 ;
4242 [label="PHYSHLTH <= 82.5\ngini = 0.195\nsamples = 74516\nvalue = [8169, 66347]\nclass = good health", fillcolor="#51a9e8"] ;
0 -> 4242 [labeldistance=2.5, labelangle=-45, headlabel="False"] ;
4243 [label="PHYSHLTH <= 14.5\ngini = 0.357\nsamples = 22346\nvalue = [5192, 17154]\nclass = good health", fillcolor="#75bbed"] ;
4242 -> 4243 ;
4244 [label="INTERNET <= 1.117\ngini = 0.25\nsamples = 17021\nvalue = [2490, 14531]\nclass = good health", fillcolor="#5baee9"] ;
4243 -> 4244 ;
4245 [label="QLACTLM2 <= 1.899\ngini = 0.206\nsamples = 14432\nvalue = [1683, 12749]\nclass = good health", fillcolor="#53aae8"] ;
4244 -> 4245 ;
4246 [label="DECIDE <= 1.471\ngini = 0.359\nsamples = 2948\nvalue = [692, 2256]\nclass = good health", fillcolor="#76bbed"] ;
4245 -> 4246 ;
4247 [label="(...)", fillcolor="#C0C0C0"] ;
4246 -> 4247 ;
4442 [label="(...)", fillcolor="#C0C0C0"] ;
4246 -> 4442 ;
4993 [label="DIABETE3 <= 1.5\ngini = 0.158\nsamples = 11484\nvalue = [991, 10493]\nclass = good health", fillcolor="#4ca6e7"] ;
4245 -> 4993 ;
4994 [label="(...)", fillcolor="#C0C0C0"] ;
4993 -> 4994 ;
5243 [label="(...)", fillcolor="#C0C0C0"] ;
4993 -> 5243 ;
6644 [label="PHYSHLTH <= 2.5\ngini = 0.429\nsamples = 2589\nvalue = [807, 1782]\nclass = good health", fillcolor="#93c9f1"] ;
4244 -> 6644 ;
6645 [label="_RACE_G1 <= 1.73\ngini = 0.321\nsamples = 926\nvalue = [186, 740]\nclass = good health", fillcolor="#6bb6ec"] ;
6644 -> 6645 ;
6646 [label="(...)", fillcolor="#C0C0C0"] ;
6645 -> 6646 ;
6807 [label="(...)", fillcolor="#C0C0C0"] ;
6645 -> 6807 ;
6896 [label="CHCCOPD1 <= 1.5\ngini = 0.468\nsamples = 1663\nvalue = [621, 1042]\nclass = good health", fillcolor="#afd7f4"] ;
6644 -> 6896 ;
6897 [label="(...)", fillcolor="#C0C0C0"] ;
6896 -> 6897 ;
6966 [label="(...)", fillcolor="#C0C0C0"] ;
6896 -> 6966 ;
7427 [label="QLACTLM2 <= 1.899\ngini = 0.5\nsamples = 5325\nvalue = [2702, 2623]\nclass = poor health", fillcolor="#fefbf9"] ;
4243 -> 7427 ;
7428 [label="EMPLOY1 <= 7.5\ngini = 0.468\nsamples = 2597\nvalue = [1627, 970]\nclass = poor health", fillcolor="#f5ccaf"] ;
7427 -> 7428 ;
7429 [label="CHCCOPD1 <= 1.5\ngini = 0.491\nsamples = 1915\nvalue = [1085, 830]\nclass = poor health", fillcolor="#f9e1d0"] ;
7428 -> 7429 ;
7430 [label="(...)", fillcolor="#C0C0C0"] ;
7429 -> 7430 ;
7517 [label="(...)", fillcolor="#C0C0C0"] ;
7429 -> 7517 ;
8046 [label="_MICHD <= 1.956\ngini = 0.326\nsamples = 682\nvalue = [542, 140]\nclass = poor health", fillcolor="#eca26c"] ;
7428 -> 8046 ;
8047 [label="(...)", fillcolor="#C0C0C0"] ;
8046 -> 8047 ;
8066 [label="(...)", fillcolor="#C0C0C0"] ;
8046 -> 8066 ;
8227 [label="DIABETE3 <= 2.5\ngini = 0.478\nsamples = 2728\nvalue = [1075, 1653]\nclass = good health", fillcolor="#baddf6"] ;
7427 -> 8227 ;
8228 [label="_RFSMOK3 <= 1.5\ngini = 0.478\nsamples = 511\nvalue = [309, 202]\nclass = poor health", fillcolor="#f6d3ba"] ;
8227 -> 8228 ;
8229 [label="(...)", fillcolor="#C0C0C0"] ;
8228 -> 8229 ;
8376 [label="(...)", fillcolor="#C0C0C0"] ;
8228 -> 8376 ;
8391 [label="INCOME2 <= 4.5\ngini = 0.452\nsamples = 2217\nvalue = [766, 1451]\nclass = good health", fillcolor="#a2d1f3"] ;
8227 -> 8391 ;
8392 [label="(...)", fillcolor="#C0C0C0"] ;
8391 -> 8392 ;
8587 [label="(...)", fillcolor="#C0C0C0"] ;
8391 -> 8587 ;
9060 [label="_EDUCAG <= 1.5\ngini = 0.108\nsamples = 52170\nvalue = [2977, 49193]\nclass = good health", fillcolor="#45a3e7"] ;
4242 -> 9060 ;
9061 [label="DIABETE3 <= 1.5\ngini = 0.333\nsamples = 3034\nvalue = [641, 2393]\nclass = good health", fillcolor="#6eb7ec"] ;
9060 -> 9061 ;
9062 [label="_HISPANC <= 1.5\ngini = 0.486\nsamples = 394\nvalue = [164, 230]\nclass = good health", fillcolor="#c6e3f8"] ;
9061 -> 9062 ;
9063 [label="SEQNO <= 2015002048.0\ngini = 0.481\nsamples = 127\nvalue = [76, 51]\nclass = poor health", fillcolor="#f6d6be"] ;
9062 -> 9063 ;
9064 [label="(...)", fillcolor="#C0C0C0"] ;
9063 -> 9064 ;
9073 [label="(...)", fillcolor="#C0C0C0"] ;
9063 -> 9073 ;
9102 [label="STOPSMK2 <= 1.227\ngini = 0.442\nsamples = 267\nvalue = [88, 179]\nclass = good health", fillcolor="#9acdf2"] ;
9062 -> 9102 ;
9103 [label="(...)", fillcolor="#C0C0C0"] ;
9102 -> 9103 ;
9112 [label="(...)", fillcolor="#C0C0C0"] ;
9102 -> 9112 ;
9181 [label="INTERNET <= 1.617\ngini = 0.296\nsamples = 2640\nvalue = [477, 2163]\nclass = good health", fillcolor="#65b3eb"] ;
9061 -> 9181 ;
9182 [label="QSTLANG <= 1.5\ngini = 0.21\nsamples = 1284\nvalue = [153, 1131]\nclass = good health", fillcolor="#54aae9"] ;
9181 -> 9182 ;
9183 [label="(...)", fillcolor="#C0C0C0"] ;
9182 -> 9183 ;
9332 [label="(...)", fillcolor="#C0C0C0"] ;
9182 -> 9332 ;
9435 [label="_LTASTH1 <= 1.5\ngini = 0.364\nsamples = 1356\nvalue = [324, 1032]\nclass = good health", fillcolor="#77bced"] ;
9181 -> 9435 ;
9436 [label="(...)", fillcolor="#C0C0C0"] ;
9435 -> 9436 ;
9805 [label="(...)", fillcolor="#C0C0C0"] ;
9435 -> 9805 ;
9836 [label="DIABETE3 <= 1.5\ngini = 0.091\nsamples = 49136\nvalue = [2336, 46800]\nclass = good health", fillcolor="#43a2e6"] ;
9060 -> 9836 ;
9837 [label="QSTLANG <= 1.5\ngini = 0.248\nsamples = 3940\nvalue = [572, 3368]\nclass = good health", fillcolor="#5baee9"] ;
9836 -> 9837 ;
9838 [label="QLACTLM2 <= 1.899\ngini = 0.237\nsamples = 3847\nvalue = [529, 3318]\nclass = good health", fillcolor="#59ade9"] ;
9837 -> 9838 ;
9839 [label="(...)", fillcolor="#C0C0C0"] ;
9838 -> 9839 ;
10002 [label="(...)", fillcolor="#C0C0C0"] ;
9838 -> 10002 ;
10651 [label="_VEGESUM <= 280.5\ngini = 0.497\nsamples = 93\nvalue = [43, 50]\nclass = good health", fillcolor="#e3f1fb"] ;
9837 -> 10651 ;
10652 [label="(...)", fillcolor="#C0C0C0"] ;
10651 -> 10652 ;
10687 [label="(...)", fillcolor="#C0C0C0"] ;
10651 -> 10687 ;
10692 [label="QLACTLM2 <= 1.399\ngini = 0.075\nsamples = 45196\nvalue = [1764, 43432]\nclass = good health", fillcolor="#41a1e6"] ;
9836 -> 10692 ;
10693 [label="_TOTINDA <= 1.5\ngini = 0.192\nsamples = 3654\nvalue = [394, 3260]\nclass = good health", fillcolor="#51a9e8"] ;
10692 -> 10693 ;
10694 [label="(...)", fillcolor="#C0C0C0"] ;
10693 -> 10694 ;
11107 [label="(...)", fillcolor="#C0C0C0"] ;
10693 -> 11107 ;
11350 [label="INTERNET <= 1.617\ngini = 0.064\nsamples = 41542\nvalue = [1370, 40172]\nclass = good health", fillcolor="#40a0e6"] ;
10692 -> 11350 ;
11351 [label="(...)", fillcolor="#C0C0C0"] ;
11350 -> 11351 ;
13792 [label="(...)", fillcolor="#C0C0C0"] ;
11350 -> 13792 ;
}